[array([[[[-0.06454048, -0.17991361,  0.01442863,  0.04092873,
          -0.31163344,  0.54785025, -0.2996264 , -0.06133208,
           0.33240223,  0.38278973,  0.49139413,  0.07352458,
           0.07939977, -0.32879823, -0.5834915 ,  0.1492802 ,
           0.45122772, -0.28375328, -0.10347452, -0.4316248 ,
           0.03936406,  0.2760847 , -0.55954117, -0.30791777,
           0.30291188,  0.31060973, -0.19299705,  0.08464058,
          -0.44633758,  0.54466707, -0.607636  ,  0.42999294],
         [ 0.08432297,  0.01412166, -0.02059676,  0.29901594,
          -0.00121447,  0.12442346,  0.3989707 ,  0.5085132 ,
          -0.36908665,  0.28069392, -0.10596021, -0.14928272,
           0.14653246,  0.5085898 , -0.10027608,  0.13813181,
          -0.13452303, -0.35103452, -0.39078543,  0.11137941,
          -0.48412517,  0.04414959, -0.00583559,  0.01829496,
           0.11730856,  0.20491013, -0.13659288, -0.1514681 ,
          -0.5499478 ,  0.03064479, -0.72573394,  0.69487476],
         [-0.5130597 , -0.22799754,  0.18059027,  0.25628912,
           0.797576  ,  0.25364465,  0.12473607,  0.20790195,
          -0.34632468,  0.26239827, -0.15107451, -0.13550302,
          -0.23028234, -0.47964832, -0.40056115,  0.59210265,
           0.26333416,  0.29789162, -0.7889736 , -0.00280091,
          -0.23540528,  0.08271769, -0.40158588, -0.1090194 ,
          -0.4462341 , -0.3216564 , -0.17905466, -0.13260652,
           0.08341896, -0.17524798, -0.44071963,  0.5635371 ]],

        [[-0.12002814,  0.02078068,  0.27114788,  0.33707646,
          -0.35718527,  0.36455813, -0.20204309,  0.15418713,
           0.67364866,  0.24663664,  0.49944633, -0.02449318,
           0.06950111, -0.27310833, -0.7748152 , -0.11420705,
           0.48343965, -0.5909753 , -0.25379568, -0.6751407 ,
          -0.05226335, -0.28191063, -0.33231986, -0.6731819 ,
           0.2428107 ,  0.24814045, -0.00822487, -0.16497   ,
          -0.49190488,  0.53478545, -0.59560543,  0.35579473],
         [ 0.10607241,  0.09200076, -0.53750056,  0.5315112 ,
          -0.09288643, -0.17716672,  0.4116849 ,  0.36831015,
           0.14777838,  0.20949636,  0.23962559,  0.06749921,
          -0.10783218,  0.64108086, -0.1847949 ,  0.20155035,
           0.20288704, -0.5988156 , -0.27192098,  0.24977167,
          -0.64184815, -0.31551155, -0.05256123, -0.10249049,
          -0.22081202,  0.16178554, -0.0921883 , -0.27033496,
          -0.7204023 ,  0.02061522, -0.34165773,  0.64995056],
         [-0.3570801 , -0.28770345, -0.02259289,  0.6124797 ,
           0.6176689 ,  0.1469732 ,  0.13204615,  0.19052604,
           0.2090887 ,  0.36708137,  0.06796262, -0.16321187,
          -0.07922581, -0.14590023, -0.4807189 ,  0.5506101 ,
           0.24800527,  0.15463376, -0.6389601 ,  0.16952588,
          -0.27448526, -0.3656232 , -0.27415523, -0.55252117,
          -0.7653997 , -0.09692198, -0.16785339, -0.06460281,
           0.03236615, -0.11202793, -0.21083625,  0.44159186]],

        [[ 0.25315523, -0.15818617,  0.32059303,  0.4096711 ,
          -0.01835642, -0.18649822, -0.5580347 ,  0.08091016,
           0.5186015 , -0.5529791 ,  0.563622  , -0.06665538,
          -0.22522411,  0.01873423, -0.8080602 , -0.38101903,
           0.37444422, -0.36231968, -0.14093336, -0.67108804,
           0.1564247 , -0.59892887, -0.5278877 , -0.7262344 ,
           0.29556322,  0.23970766, -0.06505103,  0.09203328,
          -0.4070713 ,  0.30160323,  0.05156088, -0.21154483],
         [ 0.34242103,  0.11846009, -0.38079393,  0.47320285,
           0.01284864, -0.44766238,  0.23326433,  0.3592217 ,
          -0.01489015, -0.37999567,  0.24325128,  0.07059354,
          -0.0637597 ,  0.60976666, -0.07356337, -0.13948187,
           0.1285335 , -0.2462958 , -0.37112463,  0.13604786,
          -0.3792866 , -0.5403297 , -0.1460803 , -0.31636363,
           0.00647102,  0.27293208, -0.04799332, -0.43137148,
          -0.49316835, -0.12268165,  0.12618335,  0.04346064],
         [ 0.5568289 , -0.154634  ,  0.10812304,  0.5723075 ,
           0.58198684, -0.21784818,  0.06520762,  0.07672008,
           0.25645614, -0.33763826,  0.2914628 , -0.0874145 ,
           0.01675682, -0.08550007, -0.5543608 ,  0.41234016,
           0.29741535,  0.25457272, -0.52375185,  0.16911122,
          -0.15424472, -0.5738411 , -0.31019127, -0.72098136,
          -0.20077075, -0.3969464 , -0.09863938, -0.14109   ,
          -0.09155568, -0.05644897,  0.35444808, -0.18996742]]],


       [[[ 0.11843184, -0.12501107,  0.20384118,  0.01396208,
          -0.55774   ,  0.45810574, -0.31224072, -0.13157381,
          -0.2597172 ,  0.4460044 , -0.18736686, -0.00898034,
           0.022722  , -0.36053723, -0.0964395 , -0.29637304,
          -0.06568886, -0.05708907, -0.21587192, -0.7447059 ,
          -0.10987268,  0.51167417, -0.6948504 , -0.08767697,
           0.07283514, -0.14073454, -0.114821  , -0.2860445 ,
          -0.02310386,  0.53325886, -0.6093541 ,  0.42270708],
         [ 0.1513353 ,  0.13697608, -0.22779055,  0.03007272,
          -0.27289563,  0.08796817,  0.22642955,  0.2194157 ,
          -0.7106597 ,  0.42921785, -0.647402  ,  0.06646682,
          -0.12575583,  0.44920292,  0.38016993, -0.51650816,
          -0.54091364,  0.02367996, -0.607171  ,  0.39273286,
          -0.98641413,  0.40540805,  0.01564702,  0.10680582,
          -0.31126943,  0.04356072,  0.05664698, -0.5263877 ,
          -0.28565216, -0.00335434, -0.64506114,  0.5524393 ],
         [-0.13606593, -0.39611417, -0.15093319,  0.05210663,
           0.5893374 ,  0.5006891 ,  0.29616532, -0.3568881 ,
          -0.28016585,  0.40111402, -0.45988446, -0.16424629,
          -0.2657199 , -0.4003375 ,  0.19538814,  0.10005308,
          -0.2429768 ,  0.2315398 , -0.8089617 ,  0.282317  ,
          -0.65938115,  0.39901084, -0.3642248 ,  0.18537684,
          -0.50284994, -0.38716376,  0.04526209, -0.25794083,
          -0.13870464, -0.31912816, -0.20689353,  0.30438405]],

        [[-0.38962787, -0.08819959,  0.45625234, -0.12542558,
          -0.3173624 ,  0.0487923 , -0.56611365, -0.19398808,
           0.2836885 ,  0.10894594,  0.10711481,  0.04988698,
           0.02345935, -0.46294266, -0.66752046, -0.37191784,
           0.27726373, -0.37434107, -0.0388809 , -0.782673  ,
          -0.38168463,  0.12765206, -0.7063609 , -0.23553014,
           0.24482955,  0.03130453, -0.06403911, -0.24295607,
           0.19766021,  0.39815295,  0.01152716, -0.4656652 ],
         [-0.22852255,  0.25160688, -0.62737364,  0.0269166 ,
          -0.3050308 , -0.0776975 ,  0.12915686,  0.14947306,
          -0.288844  , -0.09068429, -0.22642908, -0.05016687,
          -0.0284754 ,  0.24580136,  0.15565611, -0.30720866,
          -0.13760467, -0.53124446, -0.26045832,  0.46427342,
          -0.858632  ,  0.20662555, -0.07557015, -0.0692372 ,
          -0.37617218, -0.11600841,  0.05405501, -0.6433681 ,
          -0.24011917, -0.10616031, -0.09040881, -0.22180754],
         [-0.6013384 , -0.23090713,  0.06268189,  0.16765991,
           0.4552004 ,  0.10455322,  0.12211191, -0.35057932,
           0.09863044, -0.0160473 , -0.28143463, -0.04050554,
          -0.26655844, -0.8600949 , -0.19844611,  0.13898358,
           0.06307489,  0.1111924 , -0.54607403,  0.23566839,
          -0.6747896 ,  0.12937586, -0.36348808, -0.04435191,
          -0.8071041 , -0.44449744,  0.08399349, -0.17465523,
          -0.07333747, -0.17967544,  0.3488    , -0.14241916]],

        [[ 0.20233557, -0.06182811,  0.38439146, -0.22030884,
          -0.21451643, -0.27406257, -0.23311062, -0.44921058,
           0.6779536 , -0.68118006,  0.51577115, -0.05463372,
          -0.26682115, -0.29527932, -0.7280938 , -0.5159537 ,
           0.28646418, -0.47540116,  0.02732328, -0.7708249 ,
          -0.0153982 , -0.4172993 , -0.6266465 , -0.30660418,
           0.16195229, -0.16863184, -0.13176908, -0.12156701,
           0.36801523,  0.27023417,  0.21533656, -0.5619362 ],
         [ 0.3671224 ,  0.27837723, -0.59805113, -0.21437137,
          -0.07210161, -0.55575824,  0.29960653, -0.33839208,
           0.11448057, -0.6893238 ,  0.0447813 , -0.09967119,
          -0.04305554,  0.38953993,  0.03354547, -0.745161  ,
           0.06171104, -0.5346049 , -0.36646146,  0.259899  ,
          -0.5738934 , -0.2756694 , -0.32990947, -0.24391395,
          -0.22982353, -0.06472788, -0.0019686 , -0.35991973,
           0.07273348,  0.00511765,  0.2831293 , -0.36032274],
         [ 0.37738907, -0.3930705 ,  0.08984496,  0.00588478,
           0.4892245 , -0.36692163,  0.22586231, -0.732476  ,
           0.18452555, -0.38916528,  0.16942225, -0.19564582,
          -0.2063683 , -0.48271194, -0.5604643 , -0.05808314,
           0.19820237,  0.04886746, -0.5845316 ,  0.25204125,
          -0.48738232, -0.5080043 , -0.3804116 , -0.3874005 ,
          -0.66930383, -0.5352576 ,  0.0189649 , -0.24513611,
          -0.06017529, -0.10490585,  0.6841877 , -0.5997527 ]]],


       [[[ 0.00294572, -0.31760842, -0.01001212, -0.08755235,
          -0.43269134,  0.40390864, -0.22161014, -0.4694138 ,
          -0.46605358, -0.08350935,  0.00713761,  0.00711036,
          -0.21291733,  0.00154881,  0.18149285, -0.1852761 ,
          -0.3051494 ,  0.33677247,  0.35591987, -0.72059596,
          -0.28016162,  0.40017897, -0.23857291, -0.07935113,
           0.11373048, -0.35724068,  0.03698645, -0.22874741,
           0.6774695 ,  0.3781925 , -0.30360562, -0.19324322],
         [ 0.18573627,  0.06919616, -0.30340645, -0.17096531,
          -0.42629096,  0.21822317,  0.40767124,  0.05876974,
          -0.7996628 , -0.02736963, -0.42783308, -0.02446144,
          -0.22004597,  0.665259  ,  0.65763575, -0.45499527,
          -0.6396763 ,  0.11955185, -0.13511516,  0.2378558 ,
          -0.7657141 ,  0.21362707,  0.1539122 ,  0.38223466,
          -0.01462317, -0.31227717, -0.05551501, -0.6878762 ,
           0.20446275,  0.01104022, -0.28179547, -0.03965737],
         [-0.12312642, -0.2253781 , -0.0222317 , -0.21976033,
           0.47241047,  0.3662286 ,  0.27745736, -0.53238   ,
          -0.22484085,  0.02866061, -0.01757588, -0.22866651,
          -0.16223487, -0.255862  ,  0.5914257 ,  0.11108174,
          -0.17443882,  0.42010298, -0.3062442 ,  0.26920372,
          -0.39793965,  0.31149498, -0.00480344,  0.24187103,
          -0.40649718, -0.4801644 , -0.13784923, -0.29100084,
           0.09352113, -0.24087772, -0.01100176, -0.18395048]],

        [[-0.5681634 , -0.19002898,  0.13858359, -0.35316342,
          -0.36058766, -0.02919921, -0.340207  , -0.3731941 ,
          -0.03621576, -0.41875568, -0.20827015, -0.14091964,
          -0.2958002 , -0.10848024, -0.14032348, -0.35068867,
          -0.42785227,  0.29539067,  0.48892215, -0.6107925 ,
          -0.2748006 ,  0.5604155 ,  0.05698787,  0.05576309,
           0.0318038 , -0.18251298, -0.15747145, -0.18125378,
           0.7248214 ,  0.26855868,  0.41936535, -0.68865055],
         [-0.32618773,  0.24610756, -0.6310502 , -0.6583359 ,
          -0.3243686 , -0.14747159,  0.5327977 ,  0.13842657,
          -0.50614053, -0.41394618, -0.73703444, -0.00692997,
           0.0271907 ,  0.4529534 ,  0.333137  , -0.60819954,
          -0.5141484 , -0.16172685, -0.00430531,  0.21481101,
          -0.64222926,  0.3468116 ,  0.31597608,  0.38740495,
          -0.4755613 , -0.40108296, -0.20469761, -0.6161214 ,
           0.15987246, -0.16459823,  0.1360477 , -0.42294723],
         [-0.497919  , -0.48624662,  0.04414282, -0.67190504,
           0.24567118, -0.06845295,  0.26431984, -0.45821533,
          -0.26247436, -0.3299963 , -0.61060286, -0.04059127,
          -0.10349598, -0.410639  ,  0.25128597, -0.24210157,
          -0.17932189,  0.2892219 , -0.04965422,  0.36141288,
          -0.4716076 ,  0.21604353,  0.17507084,  0.20493191,
          -0.7121954 , -0.7246513 , -0.15539916, -0.2920037 ,
           0.25114682, -0.04221092,  0.5501204 , -0.29897684]],

        [[-0.05436414, -0.08005226,  0.17900631, -0.28491217,
          -0.15081227, -0.4850979 , -0.07642615, -0.10855354,
           0.4296931 , -0.514745  , -0.18916188,  0.03075145,
          -0.16723436, -0.02320703, -0.3993086 , -0.4307808 ,
          -0.32526532, -0.04292363,  0.06949196, -0.5105909 ,
          -0.02131675,  0.00152911, -0.00347801,  0.09159572,
           0.11258159, -0.09633934, -0.1771021 , -0.2584002 ,
           0.66682297, -0.05242063,  0.4313782 , -0.24043198],
         [ 0.35660464,  0.19294423, -0.4680603 , -0.6350291 ,
          -0.1762387 , -0.6393233 ,  0.5099431 ,  0.14010815,
          -0.19147266, -0.817561  , -0.2765111 , -0.06579261,
          -0.24851018,  0.47218508,  0.08277652, -0.5042387 ,
          -0.71665764, -0.30759543, -0.00174422,  0.33251324,
          -0.40770876, -0.04033845,  0.32403976,  0.22655052,
          -0.43500218,  0.0852174 , -0.09330744, -0.5196997 ,
           0.25056496, -0.04421736,  0.31352797,  0.05238137],
         [ 0.21487947, -0.34778735,  0.14517732, -0.645235  ,
           0.35157534, -0.44713706,  0.3535293 , -0.22616246,
           0.17134735, -0.36984232, -0.31827706, -0.15538763,
          -0.21609929, -0.23446003, -0.25280607, -0.22430764,
          -0.32814515,  0.1171179 , -0.30753532,  0.12673831,
          -0.41916206, -0.2838523 ,  0.160839  ,  0.2712296 ,
          -0.6959129 , -0.52769256,  0.04842035, -0.30175054,
           0.16268231, -0.03982658,  0.44502997, -0.15916955]]]],
      dtype=float32), array([-0.0127669 ,  0.08349791,  0.06994671,  0.01256108,  0.10064682,
       -0.10949302, -0.2930857 , -0.01660291, -0.05254586, -0.11779676,
        0.07259242, -0.09916981, -0.09465929,  0.07315251,  0.11045978,
        0.17239386, -0.31558126,  0.5806511 ,  0.15949118,  0.18892023,
        0.3454311 , -0.10876712,  0.03586607,  0.02661831,  0.38575804,
        0.40108523, -0.05030797,  0.43662637,  0.00381237, -0.68108463,
        0.06042153, -0.15435989], dtype=float32)]